34 64
1 -0.153856 -0.126461 0.214545 -0.136416 0.067951 -0.177257 -0.031778 0.180581 -0.001963 -0.011391 0.008540 0.004148 0.044940 -0.171870 -0.008891 -0.251214 0.071610 -0.160536 0.164901 -0.138909 0.038623 0.025684 -0.058075 0.133591 0.112051 0.106912 0.062013 0.278828 0.276960 0.004310 -0.210222 -0.018941 -0.113782 0.217605 -0.097073 -0.220451 -0.063824 -0.034257 0.222076 -0.079519 0.009582 -0.235642 0.104619 0.196455 -0.124521 -0.059299 -0.117805 -0.053141 0.044850 0.136269 -0.122069 -0.061300 -0.070795 0.276102 -0.267451 -0.022277 0.004924 0.151888 -0.203759 0.074965 0.045932 -0.127847 -0.093982 0.011075
34 -0.025233 -0.031829 0.009144 0.202778 0.108090 -0.045559 0.134646 -0.168162 -0.115910 0.033010 -0.061144 -0.011373 0.026589 -0.062723 -0.123238 0.039990 0.067301 0.117690 -0.065026 0.195084 0.059521 0.005988 0.202487 -0.096392 -0.116405 -0.152875 -0.012134 -0.129109 -0.127733 0.163361 0.117326 0.118514 -0.043980 0.013428 -0.066462 0.099824 0.140621 0.093129 -0.087124 0.035484 -0.141355 0.257586 0.004666 -0.088950 -0.003143 0.016789 0.040038 -0.119282 -0.078234 -0.019784 0.131666 0.198885 0.058329 -0.104342 -0.013275 -0.031159 -0.046300 -0.052482 0.057673 0.047658 -0.029833 0.016269 -0.162260 0.108688
33 -0.009560 0.016862 -0.033676 0.221971 0.136092 -0.025946 0.094711 -0.213769 -0.129737 0.032069 -0.045632 0.013021 0.024527 -0.058073 -0.127593 0.083638 0.008861 0.225929 -0.103295 0.241913 0.060311 0.031989 0.229725 -0.161667 -0.209002 -0.128047 -0.012575 -0.176745 -0.167438 0.156283 0.147906 0.154707 -0.037799 0.010767 -0.034825 0.161167 0.164660 0.084757 -0.123629 0.100667 -0.142512 0.317810 -0.012054 -0.144280 0.065775 0.032534 0.026115 -0.158643 -0.147067 -0.105279 0.157264 0.190807 0.090473 -0.166636 0.015148 0.008901 -0.052816 -0.088787 0.079952 0.044651 -0.018151 0.010204 -0.200813 0.094730
3 -0.093888 -0.035014 0.119093 -0.026545 0.091945 -0.099622 -0.008993 0.021819 -0.096369 0.006466 -0.017079 0.008163 0.028875 -0.129674 -0.070811 -0.142909 0.039609 0.018355 0.069299 0.011693 0.024647 0.054766 0.036776 0.023553 -0.031418 0.053510 0.050071 0.136081 0.124799 0.057631 -0.077899 0.023046 -0.106481 0.164475 -0.049492 -0.053144 0.038663 0.004202 0.119124 0.023204 -0.015915 -0.035252 0.049925 0.084343 -0.018618 -0.035227 -0.069246 -0.099015 -0.061215 0.011501 0.008710 -0.035808 -0.004247 0.129854 -0.165935 -0.002710 -0.013935 0.059364 -0.128451 0.065989 -0.015222 -0.055661 -0.138406 0.020574
2 -0.068055 -0.032574 0.114869 -0.113851 0.045119 -0.085590 -0.065617 0.126952 -0.049076 -0.007225 -0.007526 0.010829 0.038448 -0.097317 -0.016401 -0.168899 0.021562 -0.023075 0.110544 -0.067749 0.004724 0.047458 -0.031200 0.050635 0.016170 0.117896 0.049725 0.195371 0.186737 -0.013704 -0.113335 -0.037160 -0.094806 0.168098 -0.033279 -0.086984 -0.031354 -0.056769 0.166278 0.006435 0.052980 -0.134971 0.059464 0.123856 -0.028395 -0.060277 -0.103338 -0.041307 0.004613 0.018894 -0.046581 -0.138858 -0.010724 0.206163 -0.177790 0.015799 0.022665 0.105468 -0.155236 0.054066 -0.013249 -0.055631 -0.062667 -0.044301
9 0.010425 0.059630 -0.051964 0.049762 0.051469 0.022650 -0.015881 -0.095266 -0.064850 0.008634 -0.020029 0.026340 0.010636 0.000192 -0.059366 0.038523 -0.040264 0.161134 -0.036052 0.114682 -0.006205 0.046790 0.082603 -0.098931 -0.137322 0.006331 0.012495 -0.079216 -0.077979 0.027937 0.071896 0.052079 -0.015311 0.000435 0.041098 0.112752 0.073885 0.006766 -0.042268 0.084585 -0.025295 0.124463 -0.021642 -0.065664 0.082269 -0.004779 -0.008812 -0.060971 -0.082201 -0.117860 0.070550 -0.000001 0.051352 -0.063749 0.036630 0.031998 -0.003222 -0.048867 0.007835 -0.002374 -0.029637 0.019939 -0.081438 -0.004056
32 -0.097404 -0.089779 0.075419 0.099385 0.095055 -0.096043 0.120524 -0.125742 -0.130575 0.027736 -0.040754 -0.002293 0.034690 -0.110112 -0.112446 -0.065475 0.069945 -0.007710 -0.002181 0.111813 0.074385 0.042825 0.112716 0.007755 -0.076784 -0.086039 -0.008865 0.010910 0.001120 0.135046 -0.007274 0.089970 -0.038438 0.090728 -0.119951 -0.016857 0.124692 0.096896 0.008434 -0.065335 -0.135148 0.127763 0.001741 -0.020033 -0.083095 0.027433 -0.019960 -0.073409 -0.059298 0.005883 0.052637 0.171611 -0.007393 0.008223 -0.107181 -0.052058 -0.025559 -0.021898 -0.082247 0.064789 0.000904 -0.037938 -0.154326 0.137661
24 -0.051671 -0.072603 0.037754 0.222983 0.104472 -0.068346 0.188587 -0.233369 -0.151471 0.049600 -0.059024 -0.016474 0.039356 -0.097218 -0.155590 0.006317 0.077954 0.055823 -0.063279 0.210668 0.095208 0.020039 0.210407 -0.034965 -0.118232 -0.178152 -0.030428 -0.127388 -0.133865 0.209846 0.082173 0.140541 -0.037249 0.016606 -0.123740 0.064398 0.181549 0.130341 -0.084500 -0.057379 -0.191118 0.291342 -0.024368 -0.098752 -0.055959 0.063773 0.021584 -0.092006 -0.080700 -0.011075 0.135857 0.286684 0.021298 -0.107847 -0.020720 -0.049901 -0.040137 -0.076602 0.003208 0.063075 -0.021318 -0.003612 -0.169727 0.171409
4 -0.074535 -0.009480 0.113409 -0.153180 0.045030 -0.083453 -0.126052 0.184515 -0.001715 -0.026441 0.027572 0.017260 0.032500 -0.074097 0.021759 -0.160651 0.009428 -0.046940 0.130474 -0.105473 -0.009505 0.043981 -0.090298 0.048391 0.044108 0.167603 0.045400 0.225517 0.224399 -0.067471 -0.146677 -0.062040 -0.073313 0.161154 -0.006608 -0.118663 -0.057517 -0.071626 0.179720 0.031780 0.087262 -0.217809 0.071579 0.155920 -0.006817 -0.074706 -0.114310 -0.029976 0.003759 0.011383 -0.075333 -0.197025 -0.019053 0.224871 -0.175740 0.036983 0.031999 0.112956 -0.149448 0.027509 0.020433 -0.078297 -0.025893 -0.064186
7 0.015171 -0.146716 0.068771 -0.157920 -0.202922 -0.014083 0.024477 0.332827 0.302226 -0.045060 0.092758 -0.034429 -0.050977 0.000023 0.235748 -0.066449 0.056976 -0.462054 0.043760 -0.379274 -0.027500 -0.151845 -0.249442 0.257628 0.439931 -0.004783 -0.071193 0.153682 0.191940 -0.122383 -0.182184 -0.140672 0.058801 -0.089609 -0.052714 -0.334701 -0.236126 -0.048102 0.052498 -0.220991 0.067129 -0.412432 0.085255 0.210294 -0.247926 0.014457 0.069579 0.179077 0.254968 0.322166 -0.255763 -0.003105 -0.177505 0.150331 -0.018429 -0.090496 -0.010534 0.123301 0.047867 -0.036156 0.127522 -0.047796 0.284773 0.001151
6 -0.036326 -0.187731 0.133675 -0.159356 -0.159235 -0.069584 0.042280 0.334040 0.258843 -0.038410 0.092147 -0.037508 -0.038230 -0.050978 0.208834 -0.135208 0.073433 -0.491567 0.090408 -0.381818 -0.008912 -0.130962 -0.244095 0.272409 0.435640 0.007230 -0.043117 0.202716 0.249256 -0.082776 -0.230340 -0.140993 0.035170 -0.019202 -0.079436 -0.375295 -0.213347 -0.022389 0.095038 -0.251564 0.054169 -0.426190 0.102027 0.229352 -0.291039 0.009652 0.035980 0.147173 0.251168 0.345619 -0.262533 0.011914 -0.195265 0.198370 -0.074695 -0.111740 -0.009723 0.144374 -0.015697 -0.030167 0.136511 -0.074614 0.234105 0.022139
30 0.033558 0.013103 -0.071061 0.182350 0.040710 0.031024 0.109691 -0.214011 -0.098081 0.037246 -0.057287 -0.001311 0.003159 0.002459 -0.103687 0.093689 0.008654 0.139406 -0.103709 0.198877 0.037049 0.003500 0.164883 -0.105793 -0.135804 -0.134773 -0.013408 -0.177869 -0.193990 0.116022 0.135178 0.091695 0.011908 -0.061446 -0.024009 0.153806 0.123449 0.083114 -0.120809 0.018636 -0.109936 0.271038 -0.044677 -0.130501 0.047774 0.044827 0.051685 -0.069042 -0.082115 -0.070959 0.127981 0.175196 0.063302 -0.182631 0.088788 -0.005287 -0.040277 -0.096009 0.083973 0.011846 -0.033277 0.036351 -0.084600 0.076860
14 -0.032444 -0.009036 0.059765 -0.099368 0.010471 -0.025882 -0.068428 0.082535 -0.003965 -0.005164 0.001922 0.009491 0.006178 -0.028331 0.019031 -0.076719 0.000759 -0.027949 0.068887 -0.069313 -0.004430 0.030904 -0.060049 0.040977 0.021753 0.095730 0.035802 0.122952 0.100830 -0.035101 -0.073050 -0.035316 -0.033151 0.081141 0.010797 -0.062734 -0.040776 -0.041892 0.089657 0.005961 0.046529 -0.115203 0.026164 0.080106 -0.001500 -0.025753 -0.054134 0.006861 0.009562 0.016295 -0.051250 -0.106600 -0.014684 0.115240 -0.076041 0.014527 0.010038 0.058712 -0.086297 0.003797 0.002356 -0.039225 0.005639 -0.047364
31 -0.037542 -0.013390 0.033833 0.107656 0.090453 -0.058193 0.062487 -0.137737 -0.123513 0.030341 -0.038841 0.021195 0.038506 -0.083515 -0.109187 -0.029869 0.011904 0.110865 -0.016077 0.140540 0.051828 0.031894 0.130175 -0.049603 -0.115654 -0.051571 0.023347 -0.035092 -0.052909 0.108280 0.039584 0.097643 -0.061416 0.065138 -0.041016 0.074655 0.104200 0.051324 -0.004101 0.014826 -0.091920 0.173075 -0.001745 -0.053013 0.015366 0.011619 -0.019691 -0.109607 -0.086653 -0.041651 0.075251 0.110732 0.040918 -0.043090 -0.044889 -0.008067 -0.023037 -0.036460 -0.034473 0.037008 -0.013387 -0.016328 -0.159367 0.057178
28 -0.032243 -0.039775 0.013871 0.126453 0.053842 -0.017684 0.109958 -0.157185 -0.102712 0.025910 -0.036247 -0.006351 0.015792 -0.029348 -0.097054 0.023909 0.042920 0.035252 -0.037198 0.139067 0.043398 0.012381 0.116530 -0.030804 -0.087718 -0.102941 -0.029281 -0.081621 -0.085335 0.114477 0.060885 0.085859 0.004136 0.006201 -0.071936 0.042913 0.111386 0.082838 -0.056917 -0.031817 -0.114706 0.167360 -0.023780 -0.069266 -0.029762 0.036917 0.007635 -0.046523 -0.058233 -0.022370 0.071703 0.166460 0.024109 -0.089643 0.007782 -0.027848 -0.026743 -0.065098 -0.005465 0.035190 -0.016724 -0.000605 -0.083656 0.106144
8 -0.038998 -0.041348 0.084515 -0.121814 -0.014516 -0.044797 -0.063094 0.155868 0.041139 -0.011248 0.021785 0.003045 0.001289 -0.045429 0.057939 -0.115231 0.014656 -0.096917 0.091708 -0.122727 -0.013762 0.007603 -0.095324 0.067289 0.092929 0.112319 0.024594 0.166801 0.159003 -0.050360 -0.121275 -0.057594 -0.034703 0.092641 -0.008869 -0.128152 -0.066685 -0.054205 0.123798 -0.010959 0.063855 -0.194091 0.042713 0.130833 -0.042903 -0.029412 -0.064032 0.014083 0.039764 0.064943 -0.095241 -0.123204 -0.031843 0.162324 -0.109976 0.004224 0.004797 0.083234 -0.092185 0.004000 0.020267 -0.058537 0.029552 -0.039436
26 -0.094437 -0.147083 0.103600 0.181503 0.092234 -0.128695 0.225075 -0.167770 -0.119120 0.036113 -0.052235 -0.031885 0.043274 -0.151703 -0.128899 -0.052610 0.122582 -0.081612 -0.033346 0.133178 0.120941 -0.006373 0.177953 0.044891 -0.021794 -0.197211 -0.044683 -0.052906 -0.049753 0.221376 0.019244 0.130875 -0.037036 0.042707 -0.191160 -0.061222 0.145134 0.143529 -0.043746 -0.133731 -0.209067 0.171618 0.004479 -0.033248 -0.158599 0.075977 0.013236 -0.084995 -0.037495 0.104761 0.063645 0.327772 -0.027797 -0.052532 -0.095364 -0.097035 -0.052273 -0.032470 -0.040177 0.084510 0.025579 -0.050480 -0.153780 0.216154
25 -0.131318 -0.135931 0.113159 0.167899 0.121760 -0.145771 0.189602 -0.194042 -0.157366 0.040625 -0.066646 -0.026132 0.054524 -0.154896 -0.166419 -0.093604 0.121375 -0.028296 0.003245 0.176717 0.125566 0.025256 0.198579 0.027299 -0.076709 -0.169193 -0.011325 -0.027804 -0.037975 0.228153 0.018348 0.140282 -0.061410 0.090392 -0.191267 -0.023655 0.158869 0.146043 -0.013911 -0.107527 -0.211615 0.206782 -0.000131 -0.045678 -0.117367 0.062062 -0.014116 -0.101919 -0.058729 0.052706 0.072286 0.293844 -0.001234 -0.012623 -0.142524 -0.078256 -0.030952 -0.040969 -0.088792 0.107858 -0.003615 -0.046977 -0.202801 0.196300
11 -0.030951 -0.137258 0.101629 -0.158725 -0.133838 -0.052548 -0.005052 0.299611 0.226302 -0.043307 0.075253 -0.023215 -0.034447 -0.017496 0.184231 -0.115319 0.047495 -0.384189 0.076762 -0.327109 -0.012350 -0.101235 -0.208651 0.223211 0.346162 0.032372 -0.036790 0.187847 0.210041 -0.105915 -0.186729 -0.126007 0.029778 -0.021619 -0.043164 -0.291912 -0.180844 -0.037274 0.096152 -0.167203 0.078976 -0.369259 0.085000 0.200141 -0.212912 -0.002889 0.027343 0.140974 0.194310 0.264871 -0.213997 -0.039810 -0.147240 0.175315 -0.066110 -0.081278 0.001019 0.136042 -0.027588 -0.020480 0.097447 -0.064663 0.210822 -0.002682
20 -0.042001 -0.022838 0.061297 -0.077498 0.010588 -0.052490 -0.039692 0.073925 -0.021631 -0.007776 -0.001745 0.001969 0.025754 -0.045783 0.001944 -0.095161 -0.003440 -0.028747 0.065031 -0.058416 0.007689 0.023284 -0.033557 0.040373 0.022249 0.083648 0.037722 0.110808 0.108934 -0.027943 -0.082110 -0.027763 -0.035695 0.081729 -0.002712 -0.056711 -0.016670 -0.035272 0.087013 -0.016423 0.026369 -0.099281 0.018274 0.070281 -0.014086 -0.022870 -0.052449 -0.005656 0.010542 0.006986 -0.050718 -0.078967 -0.011095 0.105439 -0.089381 0.009498 0.017333 0.041843 -0.099873 0.020566 0.013457 -0.033980 -0.014407 -0.019579
5 -0.037942 -0.160479 0.107608 -0.136719 -0.117808 -0.069205 0.038719 0.261955 0.214219 -0.035394 0.077766 -0.020882 -0.033708 -0.043482 0.163435 -0.125131 0.060516 -0.399700 0.071285 -0.299934 0.000703 -0.092557 -0.200532 0.235571 0.349628 0.008090 -0.033794 0.174458 0.208382 -0.070236 -0.198398 -0.110174 0.012382 0.000629 -0.064567 -0.315757 -0.168413 -0.019067 0.089746 -0.191912 0.053531 -0.354571 0.075481 0.197673 -0.235215 0.001964 0.024273 0.117460 0.191213 0.273250 -0.213074 0.009034 -0.144833 0.160241 -0.072101 -0.093843 -0.007162 0.124373 -0.017910 -0.023486 0.098735 -0.073707 0.183268 0.023487
17 -0.006850 -0.154200 0.091805 -0.133181 -0.179673 -0.041686 0.042359 0.307849 0.272271 -0.028918 0.088984 -0.027003 -0.042386 -0.004324 0.196594 -0.074054 0.065765 -0.448123 0.046886 -0.341622 -0.020139 -0.142272 -0.219843 0.238674 0.413358 -0.000017 -0.057128 0.161192 0.198767 -0.087666 -0.184250 -0.131372 0.050402 -0.059131 -0.062410 -0.332676 -0.202315 -0.025765 0.062222 -0.202371 0.060640 -0.393800 0.074885 0.207976 -0.247882 0.001758 0.061675 0.163081 0.225990 0.316270 -0.234334 0.000349 -0.164848 0.134683 -0.025955 -0.100965 -0.025771 0.137823 0.035842 -0.042214 0.113217 -0.055867 0.249907 0.003351
29 -0.039071 -0.012903 0.024402 0.030693 0.056215 -0.041445 0.022785 -0.061836 -0.060892 0.011738 -0.014240 0.011985 0.013521 -0.046874 -0.054858 -0.032326 0.008663 0.031429 0.012117 0.060503 0.030744 0.020457 0.048932 -0.017812 -0.062526 -0.019021 0.009326 -0.003097 0.003587 0.055646 0.012334 0.038507 -0.022404 0.044813 -0.038606 0.017544 0.058642 0.028089 0.014639 -0.001894 -0.035597 0.063829 -0.006574 -0.020677 0.006973 0.012750 -0.024176 -0.050285 -0.046695 -0.019086 0.028138 0.039888 0.009530 0.002257 -0.054082 0.007135 0.003117 -0.004478 -0.034749 0.032617 -0.004641 -0.023625 -0.083966 0.035190
18 -0.067792 -0.064053 0.108641 -0.116709 0.015613 -0.089312 -0.052159 0.147738 0.017805 -0.002490 0.011699 0.009340 0.030694 -0.086569 0.028477 -0.160899 0.024291 -0.107769 0.097197 -0.107362 0.019625 0.014134 -0.059534 0.090702 0.095192 0.102561 0.034036 0.183774 0.186793 -0.021749 -0.135583 -0.036205 -0.056054 0.127158 -0.033914 -0.145929 -0.057962 -0.039253 0.143021 -0.036880 0.035778 -0.173554 0.049596 0.131697 -0.075243 -0.026768 -0.083240 -0.003412 0.044856 0.072253 -0.092619 -0.094532 -0.038951 0.191903 -0.149776 -0.001307 0.014176 0.086802 -0.131556 0.026628 0.032607 -0.076666 -0.009249 -0.017135
13 -0.010760 -0.028309 0.056928 -0.134136 -0.049792 -0.022227 -0.060174 0.160236 0.084833 -0.016801 0.031540 -0.009183 -0.006082 -0.017798 0.084588 -0.077205 -0.001736 -0.133866 0.064355 -0.163945 -0.016331 -0.015455 -0.130635 0.090066 0.120250 0.086813 0.019025 0.143207 0.144180 -0.077880 -0.114408 -0.072263 -0.010572 0.033519 0.007635 -0.134566 -0.090217 -0.044684 0.091458 -0.035602 0.082745 -0.212444 0.040623 0.120396 -0.052791 -0.020347 -0.025434 0.052814 0.066010 0.085797 -0.110300 -0.106981 -0.047874 0.136537 -0.067074 -0.010214 0.006557 0.072932 -0.045362 -0.014960 0.035628 -0.033129 0.075136 -0.054916
23 0.011335 0.039994 -0.054450 0.130276 0.059724 0.022157 0.057263 -0.171353 -0.099080 0.022941 -0.044419 0.008647 0.012962 -0.009187 -0.101856 0.069860 -0.009122 0.159070 -0.061918 0.177042 0.023478 0.024725 0.125796 -0.089520 -0.147302 -0.078845 -0.007606 -0.135152 -0.145533 0.090137 0.105064 0.085933 -0.007452 -0.019895 -0.011936 0.133116 0.112781 0.048052 -0.085128 0.047423 -0.081845 0.224136 -0.035815 -0.109893 0.069877 0.021948 0.016827 -0.062673 -0.093616 -0.094406 0.116632 0.103888 0.064026 -0.131794 0.048499 0.001968 -0.023015 -0.079653 0.037671 0.007978 -0.035593 0.027689 -0.098232 0.048279
19 0.018548 0.034461 -0.042798 0.115271 0.055428 0.022380 0.049050 -0.175220 -0.093489 0.024535 -0.045356 0.012478 0.007691 0.005393 -0.093583 0.070023 -0.016056 0.144532 -0.056969 0.170706 0.025015 0.020597 0.123519 -0.089451 -0.146167 -0.064663 -0.003627 -0.124225 -0.137594 0.074425 0.104836 0.080551 0.000530 -0.029117 -0.003731 0.135739 0.096109 0.053399 -0.072327 0.050638 -0.072668 0.211918 -0.040286 -0.114406 0.075404 0.026685 0.023966 -0.067976 -0.088140 -0.091196 0.107493 0.093348 0.051654 -0.126155 0.057170 0.016486 -0.021344 -0.073350 0.044962 0.010052 -0.037653 0.026651 -0.089893 0.045689
21 0.003082 0.046282 -0.050774 0.130368 0.062469 0.016213 0.058686 -0.199163 -0.113472 0.035089 -0.044343 0.009634 0.015121 -0.008481 -0.106875 0.072432 -0.008821 0.170575 -0.064611 0.188948 0.032853 0.032028 0.141096 -0.101600 -0.166279 -0.083459 0.001912 -0.137730 -0.149074 0.090934 0.121189 0.089478 -0.005534 -0.015438 -0.011338 0.147157 0.118626 0.063918 -0.079674 0.055569 -0.092620 0.250876 -0.048608 -0.129347 0.068081 0.027884 0.019992 -0.073149 -0.093235 -0.107470 0.132176 0.115649 0.070714 -0.139620 0.049120 0.015130 -0.017567 -0.092543 0.031399 0.022447 -0.044767 0.033246 -0.113836 0.055541
15 -0.001497 0.036335 -0.044654 0.139574 0.081918 0.020514 0.065540 -0.207942 -0.120277 0.025752 -0.043214 0.012252 0.015772 -0.008100 -0.109710 0.066634 -0.017081 0.181653 -0.078122 0.190924 0.036638 0.040427 0.156126 -0.113311 -0.184821 -0.081933 -0.002927 -0.143118 -0.151447 0.092432 0.114804 0.104821 -0.007082 -0.013655 -0.003394 0.158901 0.125309 0.058822 -0.078566 0.065896 -0.097917 0.255197 -0.040896 -0.126016 0.084597 0.030943 0.009666 -0.091476 -0.111901 -0.115448 0.131121 0.116906 0.068939 -0.134508 0.041562 0.005892 -0.030479 -0.094655 0.041543 0.024888 -0.033137 0.036519 -0.130573 0.045687
27 0.042611 0.036499 -0.072676 0.094941 0.025617 0.046599 0.041666 -0.124175 -0.064829 0.020326 -0.033523 -0.002146 -0.003500 0.041351 -0.057523 0.082898 -0.005931 0.120904 -0.066456 0.118665 0.012026 0.012979 0.093567 -0.077100 -0.106906 -0.071417 -0.017210 -0.118639 -0.138361 0.050758 0.105012 0.043415 0.011695 -0.056230 0.021584 0.120644 0.066475 0.031691 -0.088954 0.040952 -0.051278 0.176120 -0.041420 -0.100415 0.068885 0.024515 0.042072 -0.032299 -0.056857 -0.073463 0.098867 0.073038 0.046107 -0.115969 0.077470 0.006226 -0.013711 -0.065010 0.072633 -0.001158 -0.040617 0.051439 -0.048095 0.018353
16 0.011280 0.055068 -0.053117 0.117076 0.064781 0.023260 0.042047 -0.180564 -0.108886 0.025249 -0.045369 0.015741 0.009074 0.011844 -0.092214 0.065049 -0.026477 0.172159 -0.067946 0.170391 0.018023 0.040280 0.132889 -0.111264 -0.166885 -0.057137 0.007818 -0.127658 -0.140611 0.065895 0.104190 0.084951 -0.008170 -0.021057 0.012075 0.157565 0.116883 0.037283 -0.078817 0.059034 -0.072593 0.230688 -0.037870 -0.117822 0.092561 0.015049 0.014823 -0.065961 -0.104934 -0.109824 0.125148 0.079871 0.069607 -0.119627 0.053594 0.022570 -0.012502 -0.079732 0.033130 0.005060 -0.037879 0.025527 -0.110745 0.023957
22 -0.046418 -0.050802 0.083685 -0.094703 0.003519 -0.068814 -0.042794 0.117874 0.013360 -0.012566 0.011923 0.005293 0.020409 -0.064873 0.032908 -0.118232 0.012961 -0.092871 0.085742 -0.091609 0.010394 0.009610 -0.054733 0.071887 0.069069 0.085051 0.021824 0.136730 0.149097 -0.022014 -0.107442 -0.042483 -0.047562 0.090451 -0.026018 -0.118747 -0.050857 -0.035676 0.103603 -0.037418 0.043463 -0.158581 0.037699 0.112723 -0.052102 -0.018739 -0.063160 0.006886 0.040787 0.056054 -0.080254 -0.080589 -0.044223 0.141393 -0.103954 -0.004509 0.016201 0.080353 -0.090633 0.012601 0.027825 -0.049216 0.005183 -0.010121
10 0.011502 0.043879 -0.037160 0.040656 0.039061 0.028899 -0.004391 -0.079129 -0.050493 0.002499 -0.012739 0.014413 -0.000533 0.020761 -0.048403 0.043875 -0.016972 0.115289 -0.026260 0.087953 0.003336 0.026710 0.052432 -0.057392 -0.102682 -0.004903 0.010661 -0.057981 -0.062093 0.013772 0.047706 0.024147 0.001733 0.006207 0.013007 0.084701 0.054533 0.000323 -0.033411 0.047766 -0.018650 0.095408 -0.016856 -0.050380 0.074095 0.008445 0.002279 -0.036588 -0.049963 -0.085774 0.060445 0.002587 0.047556 -0.055792 0.021909 0.031715 0.004631 -0.044328 0.001873 0.006926 -0.024400 0.017016 -0.058294 -0.001947
12 -0.017172 -0.024887 0.034126 -0.107220 -0.043875 -0.015976 -0.058162 0.116791 0.058653 -0.013448 0.036186 0.007076 -0.007370 0.002146 0.067294 -0.050895 -0.013264 -0.094141 0.056199 -0.129183 -0.016246 -0.003584 -0.093444 0.060645 0.086397 0.066574 0.013508 0.101269 0.105618 -0.067860 -0.077128 -0.057425 -0.008187 0.024565 0.015873 -0.085294 -0.077496 -0.036677 0.065492 -0.024079 0.063532 -0.160084 0.029802 0.078056 -0.040831 -0.011392 -0.018789 0.043484 0.050209 0.049973 -0.085509 -0.086222 -0.042176 0.088871 -0.044875 -0.009371 0.018260 0.055658 -0.041346 -0.008829 0.030712 -0.019178 0.061996 -0.035338
